digraph Tree {
node [shape=box, style="filled, rounded", color="black", fontname=helvetica] ;
edge [fontname=helvetica] ;
0 [label="petal width (cm) <= 0.75\ngini = 0.66\nsamples = 96\nvalue = [47, 44, 59]\nclass = virginica", fillcolor="#8139e51e"] ;
1 [label="gini = 0.0\nsamples = 31\nvalue = [47, 0, 0]\nclass = setosa", fillcolor="#e58139ff"] ;
0 -> 1 [labeldistance=2.5, labelangle=45, headlabel="True"] ;
2 [label="petal width (cm) <= 1.55\ngini = 0.49\nsamples = 65\nvalue = [0, 44, 59]\nclass = virginica", fillcolor="#8139e541"] ;
0 -> 2 [labeldistance=2.5, labelangle=-45, headlabel="False"] ;
3 [label="petal width (cm) <= 1.45\ngini = 0.19\nsamples = 31\nvalue = [0, 42, 5]\nclass = versicolor", fillcolor="#39e581e1"] ;
2 -> 3 ;
4 [label="gini = 0.0\nsamples = 23\nvalue = [0, 34, 0]\nclass = versicolor", fillcolor="#39e581ff"] ;
3 -> 4 ;
5 [label="sepal length (cm) <= 6.35\ngini = 0.47\nsamples = 8\nvalue = [0, 8, 5]\nclass = versicolor", fillcolor="#39e58160"] ;
3 -> 5 ;
6 [label="petal length (cm) <= 4.95\ngini = 0.47\nsamples = 4\nvalue = [0, 3, 5]\nclass = virginica", fillcolor="#8139e566"] ;
5 -> 6 ;
7 [label="gini = 0.0\nsamples = 2\nvalue = [0, 3, 0]\nclass = versicolor", fillcolor="#39e581ff"] ;
6 -> 7 ;
8 [label="gini = 0.0\nsamples = 2\nvalue = [0, 0, 5]\nclass = virginica", fillcolor="#8139e5ff"] ;
6 -> 8 ;
9 [label="gini = 0.0\nsamples = 4\nvalue = [0, 5, 0]\nclass = versicolor", fillcolor="#39e581ff"] ;
5 -> 9 ;
10 [label="petal width (cm) <= 1.75\ngini = 0.07\nsamples = 34\nvalue = [0, 2, 54]\nclass = virginica", fillcolor="#8139e5f6"] ;
2 -> 10 ;
11 [label="petal width (cm) <= 1.65\ngini = 0.38\nsamples = 3\nvalue = [0, 2, 6]\nclass = virginica", fillcolor="#8139e5aa"] ;
10 -> 11 ;
12 [label="gini = 0.0\nsamples = 1\nvalue = [0, 0, 5]\nclass = virginica", fillcolor="#8139e5ff"] ;
11 -> 12 ;
13 [label="petal length (cm) <= 4.75\ngini = 0.44\nsamples = 2\nvalue = [0, 2, 1]\nclass = versicolor", fillcolor="#39e5817f"] ;
11 -> 13 ;
14 [label="gini = 0.0\nsamples = 1\nvalue = [0, 0, 1]\nclass = virginica", fillcolor="#8139e5ff"] ;
13 -> 14 ;
15 [label="gini = 0.0\nsamples = 1\nvalue = [0, 2, 0]\nclass = versicolor", fillcolor="#39e581ff"] ;
13 -> 15 ;
16 [label="gini = 0.0\nsamples = 31\nvalue = [0, 0, 48]\nclass = virginica", fillcolor="#8139e5ff"] ;
10 -> 16 ;
}